<?xml version="1.0" encoding="UTF-8"?>
<!-- This network was created in GeNIe Academic, which can be used for academic teaching and research purposes only -->
<smile version="1.0" id="world_happiness_report_2021" numsamples="10000" discsamples="10000">
	<nodes>
		<cpt id="Ladder_score">
			<state id="s1_below_5" />
			<state id="s2_5_6" />
			<state id="s3_6_up" />
			<probabilities>0.4966442953020134 0.1543624161073825 0.348993288590604</probabilities>
		</cpt>
		<cpt id="Freedom_to_make_life_choices">
			<state id="s1_below_0" />
			<state id="s2_0_0" />
			<state id="s3_0_up" />
			<probabilities>0.04697986577181208 0.3624161073825503 0.5906040268456376</probabilities>
		</cpt>
		<cpt id="Regional_indicator">
			<state id="SCentral_and_Eastern_Europe" />
			<state id="SCommonwealth_of_Independent_States" />
			<state id="SEast_Asia" />
			<state id="SLatin_America_and_Caribbean" />
			<state id="SMiddle_East_and_North_Africa" />
			<state id="SNorth_America_and_ANZ" />
			<state id="SSouth_Asia" />
			<state id="SSoutheast_Asia" />
			<state id="SSub_Saharan_Africa" />
			<state id="SWestern_Europe" />
			<parents>Ladder_score Freedom_to_make_life_choices</parents>
			<probabilities>0.0125 0.0125 0.0125 0.0125 0.3875 0.0125 0.1375 0.0125 0.3875 0.0125 0.0275 0.05249999999999999 0.0275 0.05249999999999999 0.2275 0.0025 0.0275 0.0025 0.5774999999999999 0.0025 0.07241379310344828 0.1758620689655172 0.03793103448275862 0.003448275862068965 0.003448275862068965 0.003448275862068965 0.1758620689655172 0.2103448275862069 0.3137931034482758 0.003448275862068965 0.1 0.1 0.1 0.1 0.1 0.1 0.1 0.1 0.1 0.1 0.4555555555555557 0.1222222222222223 0.2333333333333334 0.01111111111111112 0.01111111111111112 0.01111111111111112 0.01111111111111112 0.01111111111111112 0.01111111111111112 0.1222222222222223 0.006250000000000002 0.13125 0.06875000000000002 0.5062500000000001 0.006250000000000002 0.006250000000000002 0.006250000000000002 0.13125 0.006250000000000002 0.13125 0.1 0.1 0.1 0.1 0.1 0.1 0.1 0.1 0.1 0.1 0.3875000000000001 0.0125 0.0125 0.1375 0.0125 0.0125 0.0125 0.0125 0.0125 0.3875000000000001 0.1543478260869565 0.04565217391304347 0.02391304347826087 0.1978260869565217 0.1108695652173913 0.08913043478260867 0.00217391304347826 0.02391304347826087 0.02391304347826087 0.3282608695652173</probabilities>
		</cpt>
		<cpt id="Logged_GDP_per_capita">
			<state id="s1_below_8" />
			<state id="s2_8_9" />
			<state id="s3_9_up" />
			<parents>Regional_indicator</parents>
			<probabilities>0.01851851851851852 0.3518518518518518 0.6296296296296297 0.08333333333333333 0.75 0.1666666666666667 0.04761904761904762 0.3333333333333333 0.619047619047619 0.05 0.8500000000000001 0.1 0.05882352941176471 0.5882352941176471 0.3529411764705882 0.06666666666666667 0.06666666666666667 0.8666666666666667 0.2916666666666667 0.6666666666666667 0.04166666666666667 0.03333333333333333 0.7333333333333334 0.2333333333333334 0.6944444444444444 0.2777777777777778 0.02777777777777778 0.01515151515151515 0.01515151515151515 0.9696969696969697</probabilities>
		</cpt>
		<cpt id="Social_support">
			<state id="s1_below_0" />
			<state id="s2_0_0" />
			<state id="s3_0_up" />
			<parents>Ladder_score Logged_GDP_per_capita</parents>
			<probabilities>0.3666666666666666 0.5666666666666667 0.06666666666666667 0.05128205128205128 0.5897435897435898 0.358974358974359 0.05555555555555555 0.05555555555555555 0.8888888888888888 0.3333333333333333 0.3333333333333333 0.3333333333333333 0.0196078431372549 0.0196078431372549 0.9607843137254901 0.04166666666666666 0.1666666666666667 0.7916666666666666 0.3333333333333333 0.3333333333333333 0.3333333333333333 0.02777777777777778 0.1111111111111111 0.8611111111111112 0.007936507936507936 0.03174603174603174 0.9603174603174603</probabilities>
		</cpt>
		<cpt id="Healthy_life_expectancy">
			<state id="s1_below_57" />
			<state id="s2_57_67" />
			<state id="s3_67_up" />
			<parents>Regional_indicator</parents>
			<probabilities>0.01851851851851852 0.2962962962962963 0.6851851851851852 0.02564102564102564 0.9487179487179487 0.02564102564102564 0.04761904761904762 0.1904761904761905 0.7619047619047619 0.05 0.4 0.55 0.05882352941176471 0.8235294117647058 0.1176470588235294 0.06666666666666667 0.06666666666666667 0.8666666666666667 0.1428571428571428 0.7142857142857142 0.1428571428571428 0.03333333333333333 0.7333333333333334 0.2333333333333334 0.7117117117117118 0.2792792792792793 0.009009009009009009 0.01515151515151515 0.01515151515151515 0.9696969696969697</probabilities>
		</cpt>
		<cpt id="Perceptions_of_corruption">
			<state id="s1_below_0" />
			<state id="s2_0_0" />
			<state id="s3_0_up" />
			<parents>Regional_indicator</parents>
			<probabilities>0.01851851851851852 0.07407407407407407 0.9074074074074073 0.02564102564102564 0.4102564102564102 0.5641025641025641 0.04761904761904762 0.3333333333333333 0.619047619047619 0.01587301587301587 0.06349206349206349 0.9206349206349205 0.01851851851851852 0.07407407407407407 0.9074074074074073 0.25 0.5 0.25 0.04166666666666666 0.04166666666666666 0.9166666666666666 0.1333333333333333 0.03333333333333333 0.8333333333333335 0.02777777777777778 0.05555555555555555 0.9166666666666666 0.3333333333333333 0.3809523809523809 0.2857142857142857</probabilities>
		</cpt>
		<decision id="Move_out">
			<state id="Move_out" />
			<state id="no_move_out" />
		</decision>
		<utility id="Utility">
			<parents>Move_out Ladder_score Healthy_life_expectancy</parents>
			<utilities>1000 0 900 0 0 0 -900 0 -900 -1000 0 -900 0 0 0 900 0 1000</utilities>
		</utility>
	</nodes>
	<extensions>
		<genie version="1.0" app="GeNIe 3.0.6128.0 ACADEMIC" name="world-happiness-report-2021">
			<node id="Regional_indicator">
				<name>Regional indicator</name>
				<interior color="e5f6f7" />
				<outline color="000080" />
				<font color="000000" name="Arial" size="8" />
				<position>533 227 605 275</position>
				<barchart active="true" width="312" height="198" />
			</node>
			<node id="Ladder_score">
				<name>Ladder score</name>
				<interior color="e5f6f7" />
				<outline color="000080" />
				<font color="000000" name="Arial" size="8" />
				<position>809 205 927 279</position>
				<barchart active="true" width="155" height="84" />
			</node>
			<node id="Logged_GDP_per_capita">
				<name>Logged GDP per capita</name>
				<interior color="e5f6f7" />
				<outline color="000080" />
				<font color="000000" name="Arial" size="8" />
				<position>529 70 618 120</position>
				<barchart active="true" width="168" height="72" />
			</node>
			<node id="Social_support">
				<name>Social support</name>
				<interior color="e5f6f7" />
				<outline color="000080" />
				<font color="000000" name="Arial" size="8" />
				<position>754 88 826 136</position>
				<barchart active="true" width="128" height="72" />
			</node>
			<node id="Healthy_life_expectancy">
				<name>Healthy life expectancy</name>
				<interior color="e5f6f7" />
				<outline color="000080" />
				<font color="000000" name="Arial" size="8" />
				<position>578 391 650 439</position>
				<barchart active="true" width="207" height="72" />
			</node>
			<node id="Freedom_to_make_life_choices">
				<name>Freedom to make life choices</name>
				<interior color="e5f6f7" />
				<outline color="000080" />
				<font color="000000" name="Arial" size="8" />
				<position>268 213 370 285</position>
				<barchart active="true" width="167" height="84" />
			</node>
			<node id="Perceptions_of_corruption">
				<name>Perceptions of corruption</name>
				<interior color="e5f6f7" />
				<outline color="000080" />
				<font color="000000" name="Arial" size="8" />
				<position>330 378 402 426</position>
				<barchart active="true" width="171" height="89" />
			</node>
			<textbox>
				<caption>Input file: world-happiness-report-2021\nData rows: 149\nElapsed time: 0.188s\n\nLearning algorithm: Bayesian Search\nAlgorithm parameters:\nIterations: 20\nMax parent count: 8\nSample size: 50\nLink probability: 0.1\nPrior link probability: 0.001\nSeed: 0\nMax search time: 0\nNo background knowledge\n\nBest score in iteration 7: -1137.91\nEM Log Likelihood: -896.097</caption>
				<font color="000000" name="Arial" size="8" />
				<position>5 254 194 492</position>
			</textbox>
			<node id="Move_out">
				<name>Move_out</name>
				<interior color="e5f6f7" />
				<outline color="000080" />
				<font color="000000" name="Arial" size="8" />
				<position>703 502 796 556</position>
				<barchart active="true" width="128" height="64" />
			</node>
			<node id="Utility">
				<name>Utility</name>
				<interior color="e5f6f7" />
				<outline color="000080" />
				<font color="000000" name="Arial" size="8" />
				<position>788 362 937 453</position>
				<barchart active="true" width="193" height="64" />
			</node>
		</genie>
	</extensions>
</smile>
